digraph Tree {
node [shape=box] ;
0 [label="prev_interaction <= 0.5\ngini = 0.783\nsamples = 1331\nvalue = [420, 358, 57, 215, 8, 150, 52, 71]\nclass = hover"] ;
1 [label="gini = 0.477\nsamples = 421\nvalue = [0, 295, 29, 0, 2, 0, 35, 60]\nclass = drag"] ;
0 -> 1 [labeldistance=2.5, labelangle=45, headlabel="True"] ;
2 [label="prev_interaction <= 2.5\ngini = 0.698\nsamples = 910\nvalue = [420, 63, 28, 215, 6, 150, 17, 11]\nclass = hover"] ;
0 -> 2 [labeldistance=2.5, labelangle=-45, headlabel="False"] ;
3 [label="prev_interaction <= 1.5\ngini = 0.598\nsamples = 415\nvalue = [53, 1, 0, 215, 0, 142, 4, 0]\nclass = click"] ;
2 -> 3 ;
4 [label="gini = 0.552\nsamples = 358\nvalue = [46, 0, 0, 215, 0, 95, 2, 0]\nclass = click"] ;
3 -> 4 ;
5 [label="gini = 0.303\nsamples = 57\nvalue = [7, 1, 0, 0, 0, 47, 2, 0]\nclass = set_attribute_weight_vector_calc"] ;
3 -> 5 ;
6 [label="prev_interaction <= 3.5\ngini = 0.43\nsamples = 495\nvalue = [367, 62, 28, 0, 6, 8, 13, 11]\nclass = hover"] ;
2 -> 6 ;
7 [label="gini = 0.279\nsamples = 215\nvalue = [179, 36, 0, 0, 0, 0, 0, 0]\nclass = hover"] ;
6 -> 7 ;
8 [label="prev_interaction <= 4.5\ngini = 0.526\nsamples = 280\nvalue = [188, 26, 28, 0, 6, 8, 13, 11]\nclass = hover"] ;
6 -> 8 ;
9 [label="gini = 0.0\nsamples = 8\nvalue = [0, 0, 0, 0, 0, 8, 0, 0]\nclass = set_attribute_weight_vector_calc"] ;
8 -> 9 ;
10 [label="prev_interaction <= 5.5\ngini = 0.498\nsamples = 272\nvalue = [188, 26, 28, 0, 6, 0, 13, 11]\nclass = hover"] ;
8 -> 10 ;
11 [label="gini = 0.455\nsamples = 150\nvalue = [107, 6, 27, 0, 6, 0, 2, 2]\nclass = hover"] ;
10 -> 11 ;
12 [label="prev_interaction <= 6.5\ngini = 0.519\nsamples = 122\nvalue = [81, 20, 1, 0, 0, 0, 11, 9]\nclass = hover"] ;
10 -> 12 ;
13 [label="gini = 0.525\nsamples = 51\nvalue = [33, 8, 1, 0, 0, 0, 0, 9]\nclass = hover"] ;
12 -> 13 ;
14 [label="gini = 0.49\nsamples = 71\nvalue = [48, 12, 0, 0, 0, 0, 11, 0]\nclass = hover"] ;
12 -> 14 ;
}