digraph Tree {
node [shape=box] ;
0 [label="prev_interaction <= 4.5\ngini = 0.754\nsamples = 1111\nvalue = [361, 366, 62, 8, 150, 77, 87]\nclass = drag"] ;
1 [label="prev_interaction <= 0.5\ngini = 0.728\nsamples = 798\nvalue = [299, 239, 24, 1, 150, 31, 54]\nclass = hover"] ;
0 -> 1 [labeldistance=2.5, labelangle=45, headlabel="True"] ;
2 [label="gini = 0.696\nsamples = 362\nvalue = [107, 157, 19, 1, 0, 25, 53]\nclass = drag"] ;
1 -> 2 ;
3 [label="prev_interaction <= 1.5\ngini = 0.652\nsamples = 436\nvalue = [192, 82, 5, 0, 150, 6, 1]\nclass = hover"] ;
1 -> 3 ;
4 [label="gini = 0.617\nsamples = 366\nvalue = [191, 76, 0, 0, 95, 3, 1]\nclass = hover"] ;
3 -> 4 ;
5 [label="prev_interaction <= 3.0\ngini = 0.368\nsamples = 70\nvalue = [1, 6, 5, 0, 55, 3, 0]\nclass = set_attribute_weight_vector_calc"] ;
3 -> 5 ;
6 [label="gini = 0.407\nsamples = 62\nvalue = [1, 6, 5, 0, 47, 3, 0]\nclass = set_attribute_weight_vector_calc"] ;
5 -> 6 ;
7 [label="gini = 0.0\nsamples = 8\nvalue = [0, 0, 0, 0, 8, 0, 0]\nclass = set_attribute_weight_vector_calc"] ;
5 -> 7 ;
8 [label="prev_interaction <= 5.5\ngini = 0.748\nsamples = 313\nvalue = [62, 127, 38, 7, 0, 46, 33]\nclass = drag"] ;
0 -> 8 [labeldistance=2.5, labelangle=-45, headlabel="False"] ;
9 [label="gini = 0.706\nsamples = 150\nvalue = [38, 61, 37, 6, 0, 2, 6]\nclass = drag"] ;
8 -> 9 ;
10 [label="prev_interaction <= 6.5\ngini = 0.714\nsamples = 163\nvalue = [24, 66, 1, 1, 0, 44, 27]\nclass = drag"] ;
8 -> 10 ;
11 [label="gini = 0.716\nsamples = 76\nvalue = [13, 23, 1, 0, 0, 29, 10]\nclass = set_attribute_weight_vector_select"] ;
10 -> 11 ;
12 [label="gini = 0.672\nsamples = 87\nvalue = [11, 43, 0, 1, 0, 15, 17]\nclass = drag"] ;
10 -> 12 ;
}