digraph Tree {
node [shape=box] ;
0 [label="prev_interaction <= 5.5\ngini = 0.745\nsamples = 3443\nvalue = [1252, 1050, 83, 43, 294, 281, 426, 12, 2]\nclass = hover"] ;
1 [label="prev_interaction <= 0.5\ngini = 0.697\nsamples = 2720\nvalue = [1136, 899, 81, 28, 294, 80, 202, 0, 0]\nclass = hover"] ;
0 -> 1 [labeldistance=2.5, labelangle=45, headlabel="True"] ;
2 [label="gini = 0.657\nsamples = 1249\nvalue = [376, 596, 26, 9, 0, 57, 185, 0, 0]\nclass = drag"] ;
1 -> 2 ;
3 [label="prev_interaction <= 1.5\ngini = 0.649\nsamples = 1471\nvalue = [760, 303, 55, 19, 294, 23, 17, 0, 0]\nclass = hover"] ;
1 -> 3 ;
4 [label="gini = 0.514\nsamples = 1051\nvalue = [689, 167, 0, 0, 186, 5, 4, 0, 0]\nclass = hover"] ;
3 -> 4 ;
5 [label="prev_interaction <= 4.5\ngini = 0.778\nsamples = 420\nvalue = [71, 136, 55, 19, 108, 18, 13, 0, 0]\nclass = drag"] ;
3 -> 5 ;
6 [label="prev_interaction <= 3.0\ngini = 0.259\nsamples = 126\nvalue = [2, 8, 5, 0, 108, 3, 0, 0, 0]\nclass = set_attribute_weight_vector_calc"] ;
5 -> 6 ;
7 [label="gini = 0.372\nsamples = 83\nvalue = [2, 8, 5, 0, 65, 3, 0, 0, 0]\nclass = set_attribute_weight_vector_calc"] ;
6 -> 7 ;
8 [label="gini = 0.0\nsamples = 43\nvalue = [0, 0, 0, 0, 43, 0, 0, 0, 0]\nclass = set_attribute_weight_vector_calc"] ;
6 -> 8 ;
9 [label="gini = 0.718\nsamples = 294\nvalue = [69, 128, 50, 19, 0, 15, 13, 0, 0]\nclass = drag"] ;
5 -> 9 ;
10 [label="prev_interaction <= 6.5\ngini = 0.757\nsamples = 723\nvalue = [116, 151, 2, 15, 0, 201, 224, 12, 2]\nclass = category_click"] ;
0 -> 10 [labeldistance=2.5, labelangle=-45, headlabel="False"] ;
11 [label="gini = 0.731\nsamples = 280\nvalue = [69, 51, 1, 12, 0, 111, 35, 0, 1]\nclass = set_attribute_weight_vector_select"] ;
10 -> 11 ;
12 [label="prev_interaction <= 8.5\ngini = 0.714\nsamples = 443\nvalue = [47, 100, 1, 3, 0, 90, 189, 12, 1]\nclass = category_click"] ;
10 -> 12 ;
13 [label="prev_interaction <= 7.5\ngini = 0.713\nsamples = 441\nvalue = [46, 100, 1, 3, 0, 89, 189, 12, 1]\nclass = category_click"] ;
12 -> 13 ;
14 [label="gini = 0.714\nsamples = 429\nvalue = [44, 96, 1, 3, 0, 89, 183, 12, 1]\nclass = category_click"] ;
13 -> 14 ;
15 [label="gini = 0.611\nsamples = 12\nvalue = [2, 4, 0, 0, 0, 0, 6, 0, 0]\nclass = category_click"] ;
13 -> 15 ;
16 [label="gini = 0.5\nsamples = 2\nvalue = [1, 0, 0, 0, 0, 1, 0, 0, 0]\nclass = hover"] ;
12 -> 16 ;
}