digraph Tree {
node [shape=box] ;
0 [label="prev_class <= 5.0\ngini = 0.831\nsamples = 214\nvalue = [33, 43, 31, 34, 34, 39]\nclass = Shooting Guard"] ;
1 [label="prev_class <= 0.5\ngini = 0.817\nsamples = 175\nvalue = [30, 40, 27, 34, 33, 11]\nclass = Shooting Guard"] ;
0 -> 1 [labeldistance=2.5, labelangle=45, headlabel="True"] ;
2 [label="gini = 0.438\nsamples = 34\nvalue = [25, 2, 1, 0, 2, 4]\nclass = Center"] ;
1 -> 2 ;
3 [label="prev_class <= 3.5\ngini = 0.783\nsamples = 141\nvalue = [5, 38, 26, 34, 31, 7]\nclass = Shooting Guard"] ;
1 -> 3 ;
4 [label="prev_class <= 1.5\ngini = 0.747\nsamples = 107\nvalue = [4, 34, 25, 32, 6, 6]\nclass = Shooting Guard"] ;
3 -> 4 ;
5 [label="gini = 0.499\nsamples = 42\nvalue = [1, 29, 1, 4, 4, 3]\nclass = Shooting Guard"] ;
4 -> 5 ;
6 [label="prev_class <= 2.5\ngini = 0.667\nsamples = 65\nvalue = [3, 5, 24, 28, 2, 3]\nclass = Small Forward"] ;
4 -> 6 ;
7 [label="gini = 0.475\nsamples = 31\nvalue = [2, 2, 22, 2, 0, 3]\nclass = Point Guard"] ;
6 -> 7 ;
8 [label="gini = 0.4\nsamples = 34\nvalue = [1, 3, 2, 26, 2, 0]\nclass = Small Forward"] ;
6 -> 8 ;
9 [label="gini = 0.439\nsamples = 34\nvalue = [1, 4, 1, 2, 25, 1]\nclass = Power Forward"] ;
3 -> 9 ;
10 [label="gini = 0.462\nsamples = 39\nvalue = [3, 3, 4, 0, 1, 28]\nclass = Un-Assign"] ;
0 -> 10 [labeldistance=2.5, labelangle=-45, headlabel="False"] ;
}